digraph Tree {
node [shape=box, style="filled", color="black"] ;
0 [label="Total day charge <= 44.805\ngini = 0.248\nsamples = 2333\nvalue = [1994, 339]", fillcolor="#e9965b"] ;
1 [label="Customer service calls <= 3.5\ngini = 0.203\nsamples = 2178\nvalue = [1929, 249]", fillcolor="#e89153"] ;
0 -> 1 [labeldistance=2.5, labelangle=45, headlabel="True"] ;
2 [label="International plan <= 0.5\ngini = 0.147\nsamples = 1997\nvalue = [1838, 159]", fillcolor="#e78c4a"] ;
1 -> 2 ;
3 [label="Total day minutes <= 223.25\ngini = 0.093\nsamples = 1808\nvalue = [1720, 88]", fillcolor="#e68743"] ;
2 -> 3 ;
4 [label="Total eve charge <= 27.915\ngini = 0.057\nsamples = 1540\nvalue = [1495, 45]", fillcolor="#e6853f"] ;
3 -> 4 ;
5 [label="Number vmail messages <= 43.5\ngini = 0.053\nsamples = 1530\nvalue = [1488, 42]", fillcolor="#e6853f"] ;
4 -> 5 ;
6 [label="Total eve minutes <= 245.95\ngini = 0.051\nsamples = 1520\nvalue = [1480, 40]", fillcolor="#e6843e"] ;
5 -> 6 ;
7 [label="Total day calls <= 122.5\ngini = 0.039\nsamples = 1242\nvalue = [1217, 25]", fillcolor="#e6843d"] ;
6 -> 7 ;
8 [label="gini = 0.031\nsamples = 1078\nvalue = [1061, 17]", fillcolor="#e5833c"] ;
7 -> 8 ;
9 [label="gini = 0.093\nsamples = 164\nvalue = [156, 8]", fillcolor="#e68743"] ;
7 -> 9 ;
10 [label="Total day minutes <= 213.85\ngini = 0.102\nsamples = 278\nvalue = [263, 15]", fillcolor="#e68844"] ;
6 -> 10 ;
11 [label="gini = 0.08\nsamples = 264\nvalue = [253, 11]", fillcolor="#e68642"] ;
10 -> 11 ;
12 [label="gini = 0.408\nsamples = 14\nvalue = [10, 4]", fillcolor="#efb388"] ;
10 -> 12 ;
13 [label="gini = 0.32\nsamples = 10\nvalue = [8, 2]", fillcolor="#eca06a"] ;
5 -> 13 ;
14 [label="gini = 0.42\nsamples = 10\nvalue = [7, 3]", fillcolor="#f0b78e"] ;
4 -> 14 ;
15 [label="Total eve minutes <= 266.7\ngini = 0.269\nsamples = 268\nvalue = [225, 43]", fillcolor="#ea995f"] ;
3 -> 15 ;
16 [label="Total eve charge <= 20.685\ngini = 0.178\nsamples = 243\nvalue = [219, 24]", fillcolor="#e88f4f"] ;
15 -> 16 ;
17 [label="Total eve calls <= 124.5\ngini = 0.109\nsamples = 208\nvalue = [196, 12]", fillcolor="#e78945"] ;
16 -> 17 ;
18 [label="Total eve calls <= 81.5\ngini = 0.073\nsamples = 185\nvalue = [178, 7]", fillcolor="#e68641"] ;
17 -> 18 ;
19 [label="gini = 0.231\nsamples = 30\nvalue = [26, 4]", fillcolor="#e99457"] ;
18 -> 19 ;
20 [label="gini = 0.038\nsamples = 155\nvalue = [152, 3]", fillcolor="#e6833d"] ;
18 -> 20 ;
21 [label="Total eve calls <= 134.0\ngini = 0.34\nsamples = 23\nvalue = [18, 5]", fillcolor="#eca470"] ;
17 -> 21 ;
22 [label="gini = 0.473\nsamples = 13\nvalue = [8, 5]", fillcolor="#f5d0b5"] ;
21 -> 22 ;
23 [label="gini = 0.0\nsamples = 10\nvalue = [10, 0]", fillcolor="#e58139"] ;
21 -> 23 ;
24 [label="Total day charge <= 42.16\ngini = 0.451\nsamples = 35\nvalue = [23, 12]", fillcolor="#f3c3a0"] ;
16 -> 24 ;
25 [label="Account length <= 113.0\ngini = 0.269\nsamples = 25\nvalue = [21, 4]", fillcolor="#ea995f"] ;
24 -> 25 ;
26 [label="gini = 0.0\nsamples = 15\nvalue = [15, 0]", fillcolor="#e58139"] ;
25 -> 26 ;
27 [label="gini = 0.48\nsamples = 10\nvalue = [6, 4]", fillcolor="#f6d5bd"] ;
25 -> 27 ;
28 [label="gini = 0.32\nsamples = 10\nvalue = [2, 8]", fillcolor="#6ab6ec"] ;
24 -> 28 ;
29 [label="Total day calls <= 105.0\ngini = 0.365\nsamples = 25\nvalue = [6, 19]", fillcolor="#78bced"] ;
15 -> 29 ;
30 [label="gini = 0.0\nsamples = 11\nvalue = [0, 11]", fillcolor="#399de5"] ;
29 -> 30 ;
31 [label="gini = 0.49\nsamples = 14\nvalue = [6, 8]", fillcolor="#cee6f8"] ;
29 -> 31 ;
32 [label="Total intl calls <= 2.5\ngini = 0.469\nsamples = 189\nvalue = [118, 71]", fillcolor="#f5cdb0"] ;
2 -> 32 ;
33 [label="gini = 0.0\nsamples = 37\nvalue = [0, 37]", fillcolor="#399de5"] ;
32 -> 33 ;
34 [label="Total intl minutes <= 13.1\ngini = 0.347\nsamples = 152\nvalue = [118, 34]", fillcolor="#eca572"] ;
32 -> 34 ;
35 [label="Total day minutes <= 249.05\ngini = 0.078\nsamples = 123\nvalue = [118, 5]", fillcolor="#e68641"] ;
34 -> 35 ;
36 [label="Total day charge <= 33.895\ngini = 0.035\nsamples = 113\nvalue = [111, 2]", fillcolor="#e5833d"] ;
35 -> 36 ;
37 [label="gini = 0.0\nsamples = 84\nvalue = [84, 0]", fillcolor="#e58139"] ;
36 -> 37 ;
38 [label="Total day calls <= 90.0\ngini = 0.128\nsamples = 29\nvalue = [27, 2]", fillcolor="#e78a48"] ;
36 -> 38 ;
39 [label="gini = 0.278\nsamples = 12\nvalue = [10, 2]", fillcolor="#ea9a61"] ;
38 -> 39 ;
40 [label="gini = 0.0\nsamples = 17\nvalue = [17, 0]", fillcolor="#e58139"] ;
38 -> 40 ;
41 [label="gini = 0.42\nsamples = 10\nvalue = [7, 3]", fillcolor="#f0b78e"] ;
35 -> 41 ;
42 [label="gini = 0.0\nsamples = 29\nvalue = [0, 29]", fillcolor="#399de5"] ;
34 -> 42 ;
43 [label="Total day minutes <= 160.5\ngini = 0.5\nsamples = 181\nvalue = [91, 90]", fillcolor="#fffefd"] ;
1 -> 43 ;
44 [label="Total eve minutes <= 233.3\ngini = 0.193\nsamples = 74\nvalue = [8, 66]", fillcolor="#51a9e8"] ;
43 -> 44 ;
45 [label="Total night minutes <= 236.55\ngini = 0.069\nsamples = 56\nvalue = [2, 54]", fillcolor="#40a1e6"] ;
44 -> 45 ;
46 [label="gini = 0.0\nsamples = 46\nvalue = [0, 46]", fillcolor="#399de5"] ;
45 -> 46 ;
47 [label="gini = 0.32\nsamples = 10\nvalue = [2, 8]", fillcolor="#6ab6ec"] ;
45 -> 47 ;
48 [label="gini = 0.444\nsamples = 18\nvalue = [6, 12]", fillcolor="#9ccef2"] ;
44 -> 48 ;
49 [label="Total eve minutes <= 141.75\ngini = 0.348\nsamples = 107\nvalue = [83, 24]", fillcolor="#eda572"] ;
43 -> 49 ;
50 [label="gini = 0.391\nsamples = 15\nvalue = [4, 11]", fillcolor="#81c1ee"] ;
49 -> 50 ;
51 [label="Total day charge <= 29.505\ngini = 0.243\nsamples = 92\nvalue = [79, 13]", fillcolor="#e9965a"] ;
49 -> 51 ;
52 [label="gini = 0.475\nsamples = 18\nvalue = [11, 7]", fillcolor="#f6d1b7"] ;
51 -> 52 ;
53 [label="International plan <= 0.5\ngini = 0.149\nsamples = 74\nvalue = [68, 6]", fillcolor="#e78c4a"] ;
51 -> 53 ;
54 [label="Total day minutes <= 241.05\ngini = 0.061\nsamples = 64\nvalue = [62, 2]", fillcolor="#e6853f"] ;
53 -> 54 ;
55 [label="gini = 0.0\nsamples = 54\nvalue = [54, 0]", fillcolor="#e58139"] ;
54 -> 55 ;
56 [label="gini = 0.32\nsamples = 10\nvalue = [8, 2]", fillcolor="#eca06a"] ;
54 -> 56 ;
57 [label="gini = 0.48\nsamples = 10\nvalue = [6, 4]", fillcolor="#f6d5bd"] ;
53 -> 57 ;
58 [label="Voice mail plan <= 0.5\ngini = 0.487\nsamples = 155\nvalue = [65, 90]", fillcolor="#c8e4f8"] ;
0 -> 58 [labeldistance=2.5, labelangle=-45, headlabel="False"] ;
59 [label="Total eve minutes <= 185.15\ngini = 0.392\nsamples = 116\nvalue = [31, 85]", fillcolor="#81c1ee"] ;
58 -> 59 ;
60 [label="Total day charge <= 47.21\ngini = 0.483\nsamples = 44\nvalue = [26, 18]", fillcolor="#f7d8c2"] ;
59 -> 60 ;
61 [label="gini = 0.188\nsamples = 19\nvalue = [17, 2]", fillcolor="#e89050"] ;
60 -> 61 ;
62 [label="Total night minutes <= 210.95\ngini = 0.461\nsamples = 25\nvalue = [9, 16]", fillcolor="#a8d4f4"] ;
60 -> 62 ;
63 [label="gini = 0.473\nsamples = 13\nvalue = [8, 5]", fillcolor="#f5d0b5"] ;
62 -> 63 ;
64 [label="gini = 0.153\nsamples = 12\nvalue = [1, 11]", fillcolor="#4ba6e7"] ;
62 -> 64 ;
65 [label="Total night charge <= 7.285\ngini = 0.129\nsamples = 72\nvalue = [5, 67]", fillcolor="#48a4e7"] ;
59 -> 65 ;
66 [label="gini = 0.459\nsamples = 14\nvalue = [5, 9]", fillcolor="#a7d3f3"] ;
65 -> 66 ;
67 [label="gini = 0.0\nsamples = 58\nvalue = [0, 58]", fillcolor="#399de5"] ;
65 -> 67 ;
68 [label="Total day charge <= 46.32\ngini = 0.224\nsamples = 39\nvalue = [34, 5]", fillcolor="#e99456"] ;
58 -> 68 ;
69 [label="gini = 0.463\nsamples = 11\nvalue = [7, 4]", fillcolor="#f4c9aa"] ;
68 -> 69 ;
70 [label="Total day charge <= 49.355\ngini = 0.069\nsamples = 28\nvalue = [27, 1]", fillcolor="#e68640"] ;
68 -> 70 ;
71 [label="gini = 0.0\nsamples = 18\nvalue = [18, 0]", fillcolor="#e58139"] ;
70 -> 71 ;
72 [label="gini = 0.18\nsamples = 10\nvalue = [9, 1]", fillcolor="#e88f4f"] ;
70 -> 72 ;
}